-0.904582487821291,0.257347814202873,0.396710914916574,-0.451786219840815,0.202061258218559,-0.0784590534853064,-0.229987968329507,-0.0536409823819157,-0.333732025505251,-1.60881240501087,-0.989411077764944,0.184804719988117,0.162035255632062,-1.30017722599306,0.0641523648804258,-0.864097928187735,-0.829862951361542,0.379942938372584,-0.421528741284563,-0.549994573948023,0.777770880164652,0.836713539932905,0.783052202260105,-0.354534703514079,0.860620432763833,-0.303898233200884,-0.0751975475683258,0.24124253736679,-0.0707558985887883,-0.145955402583646,-1.05188839283421,0.408173902698721,-0.418579787196217,-1.08194283147395,-0.41472642824374,-0.783322692546747,-0.476938179794654,0.180392444955916,-0.64739411986513,1.2189807323971,-0.807189385459841,-0.807507169106592,0.425126300730878,0.491629655874025,0.317195439596886,-0.0311837329594678,0.702233028636681,-0.295773574129511,0.258471245746002,-0.921157719256993,0.360616947635431,-1.54182714312861,-0.337868963371507,0.577658769923189,-0.246508206654842,-0.908530413771068,0.3751924674214,0.273799227703068,-0.990414654719286,0.923445568576763,0.159986857471106,0.0901939159946746,0.647699100543634,-1.08585949451198,0.000136481974207238,-0.710068327295556,0.177519710038934,0.392520369492011,-0.646751891390237,0.265804822290611,-0.16376627558452,-0.555246656504133,0.391253149496102,-1.10264740599217,-0.432859891961936,2.20271143414876,0.533592354332942,-1.46695436772201,-0.229794338768233,0.587774044570872,-0.356519119775729,-0.876120975917893,-0.397216334677372,0.275770855164144,-1.02758775729057,-1.25847748917118,0.270628497058012,-0.448901179215448,0.213713178646588,-0.0373070177425877,-0.929516914611669,-0.193808874098655,0.4354699347544,-1.02868224521841,0.121375358363493,1.3645406732554,-1.02105599795356,0.324139119981871,-0.472058239069214,-0.607470767644364,-0.615761759677317,0.265928022255595,0.0962322856842862,-0.839066555328953,0.809487321145211,-0.729142443241397,0.770659691635615,0.64395076219964,-0.556396805335312,0.0758408006689425,-0.888760926850939,-0.720804566341708,0.528545302574604,-0.350890189892502,-1.06534877386364,-0.236405581662976,-0.806217724773626,0.412885623383881,0.322604723518693,-1.37113006220186,-1.02427013555422,0.374111011418188,-0.0254370979440874,-0.835329898301089,-0.783566618811564,-0.788438215505285,0.854082564986072,-1.89430328144569,-0.366072829212665,-0.24230931227868,0.183406030844419,-0.210836365792308,-0.279623158653738,0.705522412275229,-0.856934754916665,-0.666449082688858,-1.23193489596656,-0.0189527224302087,0.163852196551546,-0.223080399352998,0.232897029465083,0.0367805417328613,-0.163762964935813,0.535372473941917,-0.444459827217465,-0.52603899538275,-0.191033742497257,-1.57646490571268,0.465228803080296,-0.0461387163187894,-0.915625110145481,0.492327578369923,-0.781195072563156,0.159916744249098,0.532649868680945,-0.136521504062877,-0.29135265011493,0.235660315507223,-0.817746962889649,0.261383236724041,-0.643985286608132,-0.45008070335108,1.54223549970206,0.0549234164367418,-0.845635595970656,-1.35342827712679,-0.443868131029227,-0.646195919509155,-1.08180126917648,-0.992354179860315,-0.789194205095738,-0.95874353563416,-1.04125416284755,-0.403279575180794,0.707848135945762,0.585680246547639,-0.610420584594556,-0.114689715853607,0.0315642745834471,-0.402181722214993,-0.722184940576411,0.286530207257188,1.51435174169632,-1.22522843624292,-1.11624520799603,-0.54632772859987,-0.22142207391742,1.56818862514285,0.375623964759304,-0.764822301891668,-1.02798466479248,0.140051077267878,-0.227593739562868,0.813070993777926,-0.576963146480416,-0.281892487660642,-1.24606637544494,-0.0208869410859666,-0.930919023627338,0.878537412448098,-1.61443962216193,-0.638211760947884,-0.746993594144117,-0.841300064756497,-0.0654884820341102,0.295523806480237,-0.394255300865848,-1.92804215937745,-1.02516496533128,-0.479406559759909,-0.905123201766037,-0.786893118365409,0.238169748169288,0.185652413865532,-0.802596462559755,-0.319362056119518,-0.637903502693811,-0.304055775205829,0.352673072190368,-0.644637328463393,0.351748072900658,0.497805137123772,-1.23685665528053,0.365360465212044,-1.21722488991892,0.816766236237005,-0.935442868662434,-0.92624751537017,-0.94667246745352,0.812454508794145,-1.73377815860558,0.183681800263985,-0.71468259402004,-0.189681428206741,-1.21117904288245,-1.13033871045181,-0.859929784497222,0.709275630366498,-0.581738902729225,-0.282255627606019,0.227600029242437,0.109041965692522,0.0505471215022104,0.699807193935095,-0.0640212817704473,-0.852853013087705,-0.500139912259873,0.173455656954114,-0.824576720283337,-0.950846803367711,0.454020684854309,0.0594368256469499,0.172449194292656,-0.457409607500908,-0.274649676227473,0.275735344642399,1.09017497678955,0.529273342128382,0.776381477588599,-0.990996110489456,-0.691955305932595,-0.412207418176036,-1.6766469017227,0.610147881845881,1.32604896955474,-1.39568499835655,-1.02226342073024,-0.408308743161318,-0.166092210217588,-0.909510137686677,-0.435928663845445,-0.923498044039673,-0.447370371393781,1.61856860546876,-1.92124674991933,0.200568506854001,-0.476882834516195,0.600249564630365,0.299153288246441,-0.0190601283694897,-1.99961421835427,-0.567530957848273,0.0193997475635231,0.237171819231571,0.464880560560135,-0.788148099416289,0.878747263238982,-0.405620172095661,0.138352928051321,-0.635483108977347,-0.895545665906472,0.0695259426818554,0.0371218589896745,-0.703209398519643,-0.043125901376542,-0.939768905144886,-0.988683536239193,-0.331550934697012,-0.972403708965596,-0.905663809318855,0.088143734600225,0.445047817826409,-0.271387118264496,2.02178635553347,0.741223179141676,-0.816011593979788,0.0407801387772503,-0.0966347528567124,-0.43682894916361,0.403169224420317,-0.832191180077341,0.28323393885251,-0.588220781402443,-0.210832499854594,-0.638455053600082,0.161599513433258,0.0951887626099799,-1.11993151850641,0.261652332703353,-1.48752139165714,-0.616815729055785,-0.925612995328423,0.794894232661737,0.0458683919250156,-1.00606278902832,-0.561534346386701,-0.114246857588637,0.213466818965889,-0.571791947588682,-1.13141546364569,-0.726420818038221,-0.902921852351588,1.29087692688333,1.06557964666314,-0.197594445842835,-0.351924857785971,-0.25164140923674,0.338498634773698,0.30701968686407,0.0553177330734742,-0.363990849668676,0.459077997231363,0.13698599747878,0.394390834313139,-0.517859846069084,0.336144962135976,0.79578841792876,-0.144598235418374,0.260829523991826,0.314261546772949
-1.09726848140507,0.272587136709534,0.995558803327757,0.923550598683857,-0.836717512061809,-0.776013478767082,-0.792231603872756,-0.213643929099829,0.0201205934050653,-0.20348380459356,-1.0545366721929,-0.808983759002591,-0.367423180086666,-0.465250210428819,-0.000418494839921898,-0.291146197486084,-0.757518283486191,-0.164146561604925,-0.505243269665321,0.0228500631715871,0.920873337659706,-0.983405581045206,-0.8444901498576,0.296295838845291,-0.423172392794761,-0.66323162772789,0.108230447167038,0.0484736079865948,-0.0275193296478778,0.413518991284833,0.512085715989571,0.0777263138981605,0.616675475920832,-0.837277656756259,-0.916959296854445,-0.690516257025965,0.28187929443441,-0.651223900753877,-0.336004803646255,-1.02277917126195,-0.552862997842317,0.268853929527625,-0.620151258034005,-0.186508086261865,-0.330483230299025,-0.180198462821914,-0.94028587235008,-0.373216675061224,-0.0119259564846731,0.804150682166642,-0.294417010027499,0.13125104861758,-1.04782653371585,0.302556618857829,0.336799496332037,-0.2405685022232,-1.50592119903729,0.172386737960395,-0.932711515132937,2.06092145391435,0.127806325616261,-0.0404875563687787,0.0396295494327137,0.114874220597654,0.141207999478696,0.585142920774105,-0.369968928529855,-1.23566568792652,0.221759998763559,-0.108856033573278,-0.247981807428557,-0.232860279946782,0.373499502021335,-0.00857605202742838,-0.213206387387185,0.288501665908053,-0.327171931971101,-0.124530754450571,-0.668016223886369,1.88479518909251,-0.182244528258282,-0.293568813657438,0.430551208748823,-0.329037604629501,0.140063661484722,-0.390189717571074,-0.683886933988179,-0.788843059489852,-0.0849751468590516,0.20683170215721,-0.904865125320871,0.620450781873695,-0.931064940969268,-0.0912270948844061,-0.350416932525575,0.191371892104375,-0.0615249100573291,-0.112981355814443,0.656777878607893,-0.481629064339486,-0.656702368751681,-0.0297829327991746,1.90157687616944,0.563191702246977,0.329567455834924,0.218670193394444,-0.210886116093877,-0.708648976305121,0.480141115523595,-1.00046597618759,-0.00791469930009399,0.0638431176881253,-0.264826343030545,-0.213093375589543,0.517990521156994,0.55802288479108,1.02344084769312,0.379601965871971,-0.206234340749446,0.432271693092634,0.0918983312803242,-1.75653027244057,-0.997587566157717,-0.596093754827386,0.318503905222761,-0.752384282159452,0.307384231588576,0.687207711340219,-0.134734600539441,-0.528822285501089,0.453349835544169,1.62016653747117,0.264731226944531,-0.794951083154932,0.369803701760617,0.627409251712779,-0.138399317305682,0.978349548905078,-0.332516438372854,0.922103013555921,-0.246053277109247,-0.982063556974882,-0.736210388864779,0.293208770765248,-0.795589661365871,-0.566643769039288,0.193885950412055,-0.659014398950286,-0.106510349204753,-0.893274092336684,-0.419437793825649,-0.52818535762085,0.0481074748352923,-0.0486265816994653,-0.283844083101684,-0.507881621703377,-0.0591057272857443,-0.490080095950485,0.37086432374465,-0.605471794459088,-0.355437387830869,-0.244908325967219,0.566203287665569,0.236082350382523,-0.107048312400236,-0.162465269361706,0.997821791709072,0.358458067317207,-0.976161873300722,-0.770565838449458,-0.23649935003579,-0.314611282879194,-0.384165432394158,-0.198135064720368,0.823308821965041,-0.490629931560239,-1.17344005658307,-0.596563738037611,-0.385384484006506,-0.485218486137393,-0.818956298493805,-1.34777470657894,-0.416718644618693,0.397863648372261,-1.3062291973895,-0.555414865442275,0.314023003135648,-0.182334299474466,-0.443165667028359,1.16403279440489,-1.01641925791511,-1.26315676561787,0.0495190601748854,-0.37379468418973,-0.536781183939646,0.723841817860662,0.847880322599317,0.345703663418086,0.920439556538119,0.910485591922528,-2.00515145519796,-1.02787814988551,-0.234419346800627,-0.860289673876313,-1.04764910458709,0.263656554572217,1.24340585189239,0.0240570535621301,0.935469586232204,-0.902973116442462,-0.00710678915075448,-0.986489088376584,-0.584757134241305,-0.814801899406349,1.60760746515513,0.42352025828418,0.238288743583312,-0.371051820013247,-0.956518473079707,-0.60093394780932,-0.652119157156048,0.84214388033309,-0.0544387641258699,-0.777254705382638,-0.155057247919154,1.52712307085044,-0.50448743779815,-0.959509402369538,1.98741870085572,-0.534024119238352,-0.184889628478095,0.294666339435212,1.05780645448879,-0.276003866236805,-1.3036429376962,0.531326375686311,-0.278869510757309,-0.819032090784367,-0.367042405943876,-0.539032456519021,-1.08002742630906,0.510082987919907,-0.77971085453825,0.248675930645192,0.21263844268446,-0.814164848169132,-0.675600918354876,1.08983866566728,0.192097497776874,0.347924740105113,-0.779208508495299,0.465665076466567,0.584045894388809,-0.127562731172757,-0.407216283282675,-0.403696817626944,-0.13966866194601,0.495592117823247,-0.478518231034911,-0.608687657159556,-1.26800137063341,-0.741627420721904,-1.44260793845848,-0.344073663637429,0.105980930209938,0.386818423491052,0.752774697386122,0.328941922056568,-0.301422257349253,0.0229722145433161,-0.49715325031126,0.11832372792864,0.701756903566385,0.61515969997937,-0.118826537233675,0.0180985674627551,0.421565846661075,-0.0936021242786281,0.535206924930787,0.774715905167385,-1.1208786697728,-0.829226606006282,-1.01349597002689,-0.86767559904399,-1.00136503601827,-0.273165865161281,0.364972549350091,-0.454952622814887,-0.985773980624115,-0.143780723165329,-1.0678150563111,-0.49069887408817,-0.998705396906807,-0.0809628204218882,-0.480382979639874,-0.667782379055876,1.34468470068518,-0.24148432168855,-0.409419016614364,0.0408210635483599,-0.604603077304147,0.24298108785018,-0.565052680843371,-0.836392368063917,-0.607561748598326,0.119715385450383,0.532039590750734,0.18009635345709,-0.250440684209509,-0.100221991143709,1.17507489364581,0.709818806816758,-0.87924570372983,-1.04362703918946,-0.168484854476027,-0.911885389357772,-0.0158751062107485,-1.12979843501565,-1.17233468134436,-1.12394716410001,-0.614380243034442,-0.0113733140149218,1.03933372749773,-1.00422445308956,0.275861492370247,1.12777147939214,-0.567506789339304,-0.00419049217338969,-0.156344984650646,-0.990132110980323,-0.692896931926944,0.613774890908853,-0.991218031213995,0.317475977360967,-0.986650551085201,0.97393001762198,-0.661103928055452,0.0359894767217252,-0.398318990850925,1.59726943991758,0.370518750647765,-0.195246177540094,-0.802167393022089,-1.05874624990832,-0.984643293461463,-1.21370384386326,-1.30171197377811,-0.751152620802925,0.11084091825269,-0.569296873257621
-0.12958062355383,-0.989972253131498,-0.718184850419199,0.277384515149825,0.523843908058828,-0.228527238615939,-0.731979660042033,0.721534977065925,-0.474909410053022,-0.778329772458119,-0.981016637157747,0.212916382183563,-0.575791238316977,1.8433422513888,-0.483766938652549,-0.723971680134357,0.19163255742637,-0.648147748672786,0.0795237877721083,-0.561011553013901,-0.749052380617781,-0.638753985271678,-0.182411791991963,-0.569508737299315,-0.772350257787621,-1.12164203344883,0.262950393305717,-0.0681811750293903,-0.323490907457444,0.0168385870084412,-1.56691732928278,0.316911668693113,2.14730522477421,-0.931767435264422,0.029928114343255,-0.583536039152055,-0.396324533084512,-0.700059415193369,0.0277092186079014,0.630459549186125,0.228891787652704,0.250328658783709,-0.788518995348483,-0.866272658442829,0.047089377043493,0.768143936536555,-0.674325719387069,-0.123120629821487,0.668003623928514,-0.842843025107487,-0.410117286572506,-0.801462218917427,1.14459342928619,0.0656595768647541,0.0718943519174332,-0.471340426117006,0.989317179954043,-0.258897665334444,-0.034203723647275,-1.50768053100695,-0.250664685923498,0.3977401986912,-0.330978658693152,-0.989864988997864,-1.03109874940549,0.620428424468643,0.0888608261954305,-1.93035508478134,1.27124995647063,1.67540553055989,-0.681892149516212,-0.631918132541706,0.699900571264306,0.626789594262282,0.0111945792662768,-1.31340908356795,-0.28412485710669,-1.28534637739323,0.208518033750706,0.244344510342408,-0.834740329985882,0.367116623559049,-0.0854394609394099,0.52274101720678,-0.372731182382008,0.25758483635698,0.133330160196547,-0.327458993817412,-1.15588141750799,0.131266089076795,-0.407303675615151,-0.821406273294449,-0.851415429257363,-0.455987711639146,0.17284290109821,-0.874805206855266,0.580928323346272,0.0550205888239538,-0.179138502255429,0.0415124036928158,0.244423907733136,0.425169069166054,-0.32796817959035,-0.721631424608403,-0.700437790460488,0.0549796853808009,-0.057482783729377,-0.0180486263531541,-0.219620531430446,-0.834175116898242,-0.584425934761698,-0.0555576844237176,-0.632936712244332,-0.220643300925744,-0.507460544093052,0.210665938087433,-1.02224153272566,0.252403029117295,-0.199361313674698,0.298712380073159,-1.06028757912832,1.74701569344768,0.668989926355862,1.94886421772905,0.786291811732536,-0.195130203130744,-0.770827036066813,-1.27705583487296,0.117781547762679,-0.784018468134245,-0.766621514104332,-0.268943153562145,-0.809091422123161,-0.329671346504649,0.467015693029834,0.028592793585831,1.77714189149949,0.0470722163763016,-1.02928740738807,0.00859861937114844,-0.688583611464044,-1.07898614671887,0.0560958419473153,-0.0966881133154948,-0.645977185378095,0.322870043566529,0.377637773143875,-1.15450710781948,-0.686537427862537,-0.763319894701027,-0.362336002026982,-0.563249171798761,1.39372538851709,-0.992717021142033,-0.179674249147125,0.00773024759290858,-0.842214171935753,-0.0329687169594253,-0.258317167637247,0.131565969584048,-0.169119045239294,-0.411037148512348,-1.42116420505247,0.0677779871635115,0.0576128047963113,1.27405675387445,-1.69587598662252,-0.626501152685789,-0.451630274804124,-0.157941250896301,-0.936120978301912,-0.416844660591379,0.708314890828405,-0.708378176383478,0.499691326407466,0.483889577070017,-0.454120815716228,0.0555873205976631,-0.393692541575115,-0.138851261076229,-0.401311632763988,0.258653130718739,0.502030494367575,1.93997797301794,-0.900044965586823,-0.784374316948726,-0.410076975556922,-0.457382477132802,-0.343883859843172,0.00981772692897821,-0.0248091500952028,-0.923562029423699,-1.0398036743732,0.0558228090364681,-1.8564107821463,-1.40767701561233,-1.2781430003865,-1.10254258569547,-0.771657651402394,-1.06460767440696,-0.795005477004951,-0.688375356884648,-0.948767379807056,-0.812769448562491,-0.893683004920647,-0.0395078284819187,-1.97310550634144,0.348600944434875,-1.2033002050994,0.412920037316761,-0.745973030822809,0.00936751186359822,-0.948986678267001,-0.486315227336193,0.0650006137299843,-0.461249684675201,-1.01020143466542,-0.746029702684298,-0.738954724824633,0.154671890097974,-0.287875434145079,0.651775334512944,-0.0262178659332379,-1.90421995191971,-1.72814882791159,-0.483450489351172,-0.164938712191088,-0.518378938259612,-0.813275504599591,0.749209990187545,0.549010192795866,-0.599077997504093,-0.665836681113395,-0.121647539051595,0.751233750347199,-0.459527702112791,0.327524406647017,-0.309997907566626,-0.385650998393558,-0.38403149247708,0.392235542399843,-0.748143768222841,-0.20561625184408,-0.0385309546134717,-0.376474807048726,0.826991927732756,-0.502591508816036,-1.35064450382977,-0.929619635733518,0.418261116331123,0.784558245381364,-0.889518471117313,1.10653935558564,-0.626377587871104,2.03363233550905,-0.97830418831318,-0.676420240507654,-0.0990948228987367,-0.26212639906914,-0.584008694123152,1.07423418901753,-0.452479979579129,-0.737476516427846,1.51642215275712,-0.608503389030775,-1.54053637971239,-0.159330311343196,-0.998444496413468,-0.91417214451218,-0.712874843699452,2.34474515978746,0.753428810234093,-0.349446047549765,1.41354274786127,-0.26000257597604,-0.545132729328463,-1.03142625830529,0.414423816618243,0.609007323349,-0.595412364412744,-1.14013932954587,-0.0302963656161461,-0.339284044494214,-0.811987637532504,0.625801306300134,-1.05987061801423,-0.726154874334728,-0.526379068788264,-0.0834030795534403,-0.211671434785033,-1.39148438465244,0.0389864429035445,0.573110165367751,-0.552127779423829,-0.153135980910097,0.00362914794019935,-0.197660066101953,0.156295277854907,-1.57349135077093,-0.852955759819285,0.380709162320146,-0.659675162822752,0.251941319339932,0.787912704774056,0.776270993696806,0.0141984092447946,-0.270513736762573,0.728527209974728,0.147020850766193,-0.382936979217283,-1.14153973240956,-1.0069688348299,-0.559028575348719,0.409512168364189,-0.00742448756723052,1.20640929572266,0.10406518298865,-0.994326432626635,0.127671478048076,-1.30023208790401,-0.81496526640531,-1.0948291143512,-0.754275764095585,-1.27156253405134,-0.609079279952036,0.360791684210024,-0.374516612728732,0.0732040590228176,-0.561566686313331,0.243793348934835,-0.484441175314721,0.472380311578628,-1.75042905388732,-1.65810425209994,0.778620510375841,0.347369172850699,0.493647517087356,-0.656324323858796,-0.807061599556759,-0.766432734118269,0.718691971350551,-0.298495976623338,-1.05647750401155,-1.44220932171322,0.513148750747364,1.22247081710096,1.40702329517017,-0.019564715294541,-0.401941885532531,-0.638257954819811
-0.921008349072554,-1.04667547844613,-0.0383002122406263,-0.551597287984024,0.038943815719619,0.105994134668684,-0.258913275142587,-0.635972087537921,-1.38954629355209,-1.0023449442134,0.37722408718619,0.132365979963788,-0.0266454801443464,-1.40352097929087,-0.140229451463166,-0.79508805637366,0.228768105100182,-1.10182908782909,-0.652412073910483,-0.500922204528635,0.448174944371324,-1.99944474568306,-0.82128030945079,-0.256869331447228,1.00417149899222,0.282270790398678,-0.348587225843523,-1.09312708794057,0.296054705643415,-0.974149145806399,2.59981563766449,-0.551256667033702,-1.07240023567469,1.01964489146288,-0.490546068375719,-0.015963648513804,-0.669614280191858,-0.488373984201335,0.383927904508068,-0.380439445095495,0.26144222815016,0.664017493563776,-0.47517575982223,0.796299212889614,-0.723493441327512,-0.283695372330002,0.07933104258917,-1.42333457993636,-0.29593165121604,0.399496521003458,0.460382988916407,1.54833788210559,-0.688041834788924,-0.0353694475973847,-0.651945404332422,-0.607181238615305,-0.665747177885301,-0.761144532315789,0.46047488118919,-0.134869238166378,-0.619075862482184,-0.58572407393978,-0.0958786640341167,1.32986060280394,0.122749112349255,-1.10724601266952,-0.207866801403479,0.27047441608419,-2.13180088374246,-0.137457338956261,0.0570999347269033,1.9679695536129,-0.599040391239056,-0.387627956611477,-0.707780824445964,-0.843939957006317,-0.245713949726056,-1.7360409731975,0.287453830774663,0.294537611811385,-0.529808223167471,0.158559855889726,-0.0149402838220107,-0.614784761441245,-1.22438880867614,-0.339597811767252,-0.616231527396439,-0.213625878379256,1.74787148791771,0.0736163361434793,-0.933950262289997,-1.06463138897977,-0.846168635995034,0.961254084225619,-0.245180835353499,0.701583881967867,-1.42444889885808,-0.330565615897154,-1.19097896745008,-0.403581669682986,-0.320474920081194,-0.786889946800452,-0.578661070498994,-0.861014091378045,0.735428440286999,-1.00273081398819,0.560458352046791,0.835601907762019,0.192024062122876,-1.10598826385507,-1.01742597941717,0.122174658566922,-0.469832475269026,-0.275876263184427,-0.263951548888217,-1.1903798751611,-1.29333812628725,-0.536703483468158,-0.376610129554448,0.18587479170882,-1.16745277486765,-0.134819468505161,0.402848814816988,-1.62086258384777,0.148302246446165,-0.582808304263225,-0.509823335968356,-0.440294453885678,-0.45371842522555,-1.04417519270753,-0.0587290832496378,-1.18452195685939,-0.49615096955266,-0.298013921245269,0.303601429042456,-1.0069622310751,1.23498750170874,-0.065496604470862,-0.988829071303779,-0.917222581003288,-0.0228308652280859,-1.0598684168352,-0.0240552377619534,-0.260626559929657,-0.463645190238488,-0.496435171910601,0.75077887557602,0.448948534588829,-0.49816678822822,0.183123111067139,-0.126845072612114,0.383578255894339,-0.211194735514838,0.102034504276239,-0.105932678945832,0.318830251431538,1.58446214988135,-1.06737331590488,-0.890792191773608,-0.488638380549445,-0.707154650416393,-0.741210314725097,0.30394296076454,-1.25938590729038,0.195183450704787,-0.34533899559856,0.477113341048598,-0.900591709394987,-2.23544431011373,-0.179494826056826,0.17402426317182,-0.645287769305662,-0.451144611620312,0.341223184137763,-0.478308301617661,-0.869439718221743,-0.338127790668641,-0.171070190527366,-0.813897554156914,-0.777734326215972,2.39180588308109,-0.539813199190745,-1.93422922066261,-0.844126915942456,1.92784205125603,-0.306064483315028,-0.766169965713494,-0.188348763318345,-0.023711242257891,-0.768650224438844,-0.356972446139105,0.198743884602487,0.179506946311483,-0.870417066892085,-0.834858354156282,-0.946979743205611,-1.11590949891043,0.52238645508947,-0.381412780894131,0.0437241337149641,-1.92914554368214,1.04172693624946,-0.840389305639104,-0.0232877626263046,0.596242442682043,-0.730776716897097,-2.29615557206058,0.969092578607821,0.026773651272176,-0.730569522945782,0.239228497066885,0.724979431905515,-0.70466171609946,-0.706771872020644,-1.04679365337771,-0.890515230961319,-0.186406969029484,0.798094285861226,-0.37367915561571,0.38039543255934,-0.845077400031828,0.177520118235367,-0.54670551327575,0.611749910453589,-0.558668622968266,0.371051611914017,-2.19552097829283,-0.687880307445356,-1.1102960775195,-0.738547957662316,0.863659168992338,0.241605853187926,-0.382520261338384,0.0107325690307858,-0.324834725810133,-0.854609422124036,-0.888380789209469,-1.16560333057651,-0.085011543995556,0.151533522706374,0.384351003461015,0.537178143130527,-0.19956051880409,-0.866901432548698,-1.09246105936147,-1.87710138493065,-0.0778561163448724,-1.01518992512844,-0.662932650078391,-0.413638824890503,-0.940221831054185,-0.825494691476958,0.551641946807845,0.181175149104397,0.411943034175292,-1.41643970248387,0.260280171721641,0.77374632808235,-0.877818078080154,0.405797213413681,1.28774799019104,-1.34178030073495,-0.28542632979665,-1.51313161418376,-1.05966789731664,1.66728538545682,-0.030045102347314,0.0803908455481256,-0.881246143428617,-0.153848727436902,-0.340000467172664,-0.0861445327991857,-0.909750474266671,-0.964920344819291,0.392871632958624,-0.2370060634699,0.350341933472958,-1.03037192694912,-0.872129752831139,0.211795621713344,-1.99749750350643,-0.297222653889639,-0.282232512915721,-0.995768378025616,0.236983820456592,-0.452762926294393,-0.788377761897506,2.11975734725275,0.504533882026835,-0.555163627494082,-0.256163425614658,-0.90996005669017,1.46499585072215,0.483224423464437,-0.329801384591631,-0.970036729848642,-0.992656025262944,-1.01279475136334,-0.0369808826131411,0.411160758790942,-0.493123911034616,0.469073177686253,-0.566231753113351,-0.734818049661227,-0.122739096283857,0.746948509770229,-0.725046384700407,-0.591875121725554,-0.976413104825808,0.375731362488756,1.19764786509637,-0.531039957147326,0.197028028009713,-0.0781957799546395,0.610713974524172,0.528671489783252,-1.48083988039327,-0.310647442252489,0.513374514004388,-1.05706270091556,-0.172651746800131,-0.16147207675871,-1.55722038350362,-1.42343343930314,-0.303262740184686,0.828185986472849,-0.704141494431222,-1.16645839268923,-0.318445338105397,-0.124208979962238,-0.759842094188253,0.0887225484361549,0.871761378365459,-0.622033878117994,-0.272761834130252,0.368178489286756,-0.315283336552209,0.720060312106766,-0.724337614700152,-1.12880180850579,-1.0075086975224,0.665742673649883,-0.872281012225245,1.14405591862125,-0.249549748282094,-0.342401086496016,0.0956355924813201,-0.943123543684151,0.222602650694913,0.0388388984959501
-0.952312133126831,0.333858302913978,-0.997128860544106,-0.445344365398266,-0.933558920833151,-2.23124664925987,0.0726376339103441,0.738348969060957,0.35482720343458,-0.373031089748904,-0.844760903123317,-0.151121090984333,-0.352831851642791,-0.525692511862087,-0.247418678013377,-0.535684380860995,0.383255974914055,0.0953248093662265,-1.10556515421205,-0.175363102445657,-0.66206650080212,-0.226372300330685,0.933779741109764,-0.399644824488151,0.652683209760346,-0.709439681099937,-0.473169455008994,-0.426510836572614,0.102466680449153,-0.629041704792533,-0.678118057213981,0.247713797408026,-0.35664492756233,-0.297392465136323,0.183491655903919,-0.587723971138211,-0.74016029334243,-0.886723353395574,0.700726537442431,0.204350800417147,-0.44178460617188,0.457333295966101,-0.57621943064744,0.241239468506652,0.108929904122362,-0.667209633020894,-0.255194275516027,-0.326442997807982,-1.46156099959238,-0.914938999289153,-0.87235063529721,-0.996507989547283,-0.455693568545102,-0.573922443823911,-0.151858888989559,-0.656367704591843,0.195829533532442,-0.468958507891603,0.264610340943945,-0.908979372957242,-0.306985102735218,-0.720431458252716,-1.02530145409425,-0.748511273895696,0.770647987707124,-1.39390422129147,0.0273167906767196,-0.139081550687274,-0.626524248740387,-1.14084001903526,-0.440459813562473,-0.990005287508596,-0.0477320878874166,-0.559615364831404,-0.754424544536594,-0.705255310823894,-1.09508962146442,-1.4237389554014,-1.07082226700617,0.316811060454763,0.306281131347011,0.149256277510892,-1.19757436765067,0.160383316251805,-1.22421027989186,-0.0951333235822072,0.219134447431086,-1.11498126114365,-0.610802876214271,0.0269243403175816,-1.00984217587871,-0.446135102602428,0.549512710101742,-0.776607406705945,-0.654385465557956,-0.493764746781798,-1.20297136742446,0.252453320317876,-0.906957041427349,-0.648849094851088,-1.14719245718942,-0.0657442567956569,-1.08151631701255,-0.137447748196442,-0.336345791030386,-0.86278636521597,-0.582003131189363,-0.626189892390921,-0.680837310119299,-0.28465820594476,0.600572688235052,0.291935737204131,0.404023183115677,-0.410976623342895,0.387439840609054,1.7307750963682,0.693043956989459,-0.531999205210896,0.420615576018612,-0.25797737841591,-1.47779600386777,-0.58984614537333,-0.64945667901827,-0.519605935674264,-0.705556958738363,-0.042177600318707,0.635362922666883,0.178319888700207,-1.07587437734345,1.11443714523683,0.0209792654443508,-0.77756701409438,2.42719229975925,0.320132851016492,-0.803044543786478,0.232059327009376,-0.435623907161658,0.671204023370344,1.57273581870284,-0.338575863163384,-0.283372440734075,0.935615676418666,0.869227475572493,-0.937105726661283,0.345749720119418,0.425341765845133,-1.04161887469433,-0.282104941696765,0.810132445195228,-0.622288638982547,2.44672270425601,-0.566315517097157,-1.00653968178966,1.23487284273657,-0.984398131795885,-0.348531217418295,0.0459431557642756,-1.04593758114598,-0.0188860359335461,0.188808451009268,0.0363844654338789,-0.0991946508134366,-1.02850141661811,-0.857089826529754,0.869592703818966,-1.1566656143546,-0.871585405416686,-0.0109920385601974,-2.0361651822277,0.304856949492936,-0.106968396890604,0.95092951514434,-0.85627974777194,-0.676643977974182,-0.447641649326027,0.180976142438076,-2.43875808095149,0.401036841141238,0.538430673594833,0.749652873780669,-0.598814531267405,-1.10699938072651,0.342232923868021,-1.2258853009399,-0.14180070780946,0.190647811631286,-0.383774856696109,-0.143635868998658,0.0486470975870192,1.72432480863166,-0.590958729927822,-0.946736791285595,0.135587388456559,-0.638987069877866,-0.910294914106042,0.978121953611372,-2.57846035013074,0.541014704797387,-0.156776450766888,-0.838289143420867,1.51946087862775,-0.435781989581098,-0.490455108117163,0.817585456080862,-0.509459854058779,-0.00514096515292528,-0.410935437617633,-0.450411567929231,-0.656059182154777,0.0207722156782987,2.22985225460975,-0.428955593251159,0.112780836945092,-1.51041274745221,0.614787431910095,0.261974227410814,0.858836136487551,0.161954912524101,-0.804157744703965,0.163979962307722,-0.420430190413378,0.0819788999235295,-0.51647468193077,-0.0773539013372614,1.3027867253608,-0.162307030448601,-0.212092672407252,1.7502149724135,-0.593586482305158,-0.143512514883189,1.05042671018976,0.283469642113439,-0.417585538248454,-0.301205007036065,0.150119405058982,0.115477284167703,0.544317378679894,0.636206794489659,-0.203191335008973,-0.359225823754412,-0.462249262670893,-0.108346602893273,-0.353002607530797,0.934927729071898,-0.917046988820862,-1.53280582038187,-0.458623344760958,0.221767187618097,-0.580826365275325,-0.04685052782189,-0.970358086499376,-0.307893129757367,-1.27213483979732,0.597152499920502,-0.0242540767916415,-0.150485871628884,-0.167002204552751,-1.03228051280001,0.250188146792879,0.505170560566782,-1.54671276910234,1.33624308688006,-2.02786458807932,-0.69167407349769,-0.035843988989286,-0.144998603874641,-0.993253816626447,-1.07068070837358,0.14676544032261,-0.276672585218504,-2.21935329041716,-1.00923335643154,0.264359947315101,-0.213255630100956,-1.43100410134638,0.62805366141148,1.67302789820693,0.25797271047024,-0.235717333936153,-0.552885860694074,-0.602467181497308,-0.710527620736469,1.16095490671003,0.255770729571959,0.174782873533613,-0.243346223657113,-0.699127767202753,-0.519188170781562,-0.621043621078048,-0.244216757643653,-1.34347852978546,-0.299326599663901,0.390649639948346,-1.59755451307407,0.174173608652364,0.692176950045814,-0.74377960053216,-0.499593180870695,0.862114433802888,-0.883477750902313,0.376086335931694,-0.583540264354766,0.749742965362499,-0.0857815269320415,-0.909413001009087,-0.165112013287046,-0.402337701893636,1.43506926242222,-0.97682803485602,0.117700932059097,1.12379514810544,-0.531675752570911,-0.150587831056952,-0.487277822058896,0.377414402745837,0.214053177587401,0.504028064276754,-0.990624288093023,-0.739681524119894,-1.00304467870944,0.557729647964312,0.0162428532937898,-1.24798916900193,-0.425032643786216,0.707354189357507,0.0401084444807016,-1.9233283792038,-0.969618048926875,1.54758617891805,0.0692652714498465,0.0200274184814114,-0.397494364369541,-1.02756008003834,-0.548462340434482,2.52994389230393,-0.812811800154289,-0.0971429727494458,-0.642639316253901,0.624362235178464,-0.0835808095791733,1.01923380755987,-0.505618009842044,-0.298134363980586,0.238336809308509,0.00182213463203153,-0.24591801758472,-0.842870382927825,-0.143677538256359,-0.014968593645981,0.45278316929426
-0.834539180048539,0.788019717832793,0.174251148090276,-0.698852988006168,-0.976840270911369,0.171305861830934,0.434565813657156,-0.426911473924238,-0.0243214700184035,-2.54912838880422,2.1513292370915,-0.252601688553468,-0.452403552353346,-0.774380617675511,-0.145772720056544,-0.594382983554843,0.372441410499997,0.372764802067675,-0.179863931543486,-0.393355913973488,-0.228265126056238,1.74650397352717,-0.246647886653961,-0.0388340141418876,0.602753349307407,-0.183789169864164,-0.177035063392398,0.165300994004531,-0.793094339149563,0.549811864831527,-2.20744600043384,0.589242605560817,-0.412099335902739,-0.148644135141445,-0.537994619505439,0.422134949656215,0.199867893212938,0.427654252565824,-0.265528947192863,-0.42829659641277,-0.0447617805606298,-0.399682230842089,0.0765603916273185,-0.690105318751346,-0.238381699938817,-0.186422023532715,-0.442076199170526,1.94722481209106,-0.870112157253269,-0.324534689358469,-0.604936439499236,0.605811213754633,0.330676457155855,0.812545778391856,0.0920903583584788,-0.826290935451354,-0.0124167964581296,0.242022193783396,-0.000150956960550254,-0.311730259154181,-0.0417742179164864,-0.341813388780384,0.365998880784295,0.429666119576276,0.257155816701881,0.227024830113502,-0.277193929568621,0.136830452406214,-0.457206212677093,-0.465119708975596,0.275475182029899,-0.997152750122104,0.283527410683904,-1.09177514530797,-0.703256193166631,-2.80872565501048,0.110908279094091,2.50599025578763,-0.0934941452980689,0.110554948259361,-0.512792887778345,-0.927908285522508,0.215190194570672,0.159581779723581,-0.54275206233471,0.0885708147752309,-0.924442342301476,-0.191494173346158,0.711043460408567,0.13452455948291,-0.101112820134232,-0.280774636909316,-0.227639218837768,-2.06156907812544,-0.0551000592046032,0.165818847386655,1.34786782719712,-0.0904702701118712,-0.319392272467965,-0.792472815349146,0.166173190989759,-1.19666684935034,0.499380019959261,-0.905082084349431,-0.549688184675778,-0.981566715721615,-0.740153315815559,-0.674469681861619,-1.01501825323445,-0.646042763766052,0.0941914899344736,0.204308981469326,-0.567879398585341,-0.365011496208291,-1.06336990300437,0.447141470055004,-0.763122500347264,0.454122825761155,-0.0565005802359041,-0.891189127121133,1.51956658211095,-0.559077003466311,0.343017926310974,-0.826035112675806,-0.442678331967687,0.225121626028019,-0.77113884551759,0.395488561025357,0.397428924740308,0.998666435169904,0.102700391780035,0.651659581477541,0.530373828425262,0.641601737423894,-1.02917501921216,-0.190487979136121,0.338112423473156,-0.537101481214851,-0.407662404005958,0.0687229472243255,0.0856972552972498,-0.0483424494234277,-0.693667500155139,-0.599046636671863,0.893852997310213,0.263680262346214,0.0953820476531741,1.40393742508161,0.0314241920114745,0.110897628670078,-1.36534747032069,0.104355870937068,0.0194519278352097,-0.934047991021401,-1.1378225944873,0.150654275840489,-0.985830712914521,0.727250863722155,-0.415276976419521,0.297115023610849,1.12457431491489,0.682936030272573,-0.410228640069155,-1.02111867839597,-0.102066650704817,-0.499513925838738,0.674730211398599,-0.338939446623644,-0.106292538718501,0.444585919473687,0.419118144681698,0.694941416653632,0.63716079772145,0.467083325020982,-0.13169774973163,-0.433333381181713,2.05439214668702,-0.587846595431802,-0.658931095458545,-0.246869651903919,-0.304851507577876,0.281367611042115,-1.19539783544558,-0.781006312137447,0.909646923699997,-1.05377046205323,0.0383005196781647,-1.54667498079534,-0.0463226865780236,-0.740553272888746,0.0136458964892993,0.00647191896893604,-0.486651881100863,-0.309683060949489,-1.17532915316251,1.51744397961568,-0.62743932014286,1.19985229348197,-0.977257308285134,-0.499647348536149,-1.39779654114175,0.680551785803702,0.17686990647701,0.809338192482168,0.328733612895219,-0.563631037431654,0.815691228693067,-1.06505964985453,0.193116842961767,0.576118539655946,-0.674002553742329,-0.0783590413339896,-0.642126770365341,-0.997546120217629,-1.28009354564452,0.478147632088152,-1.06006062922493,0.220487201871264,1.24986801876984,-0.556549759745763,0.00699576809928388,-1.16130171953169,0.422377181932943,-0.450935878794612,-0.784735078237773,-0.245391505981914,2.9177712195462,-0.844699792993534,-0.21599026947321,-1.09966234941494,-0.979845980101281,-1.04014441235013,0.153758305514731,-0.553422761555638,-1.02142384539781,-1.00182593767513,-0.710650155447132,0.653223004537576,-1.28913257505571,0.436317537664055,-1.02048209660475,-0.956906226581083,-0.183465994982213,0.195239283228979,1.69377112835368,-1.29469799886692,-0.83001112738702,-1.05716709816795,2.38132424871425,0.189820026059844,-1.09813685484461,-1.0942533894289,-0.141940168440243,0.45938040065707,-0.356995702737674,0.0438285592003081,-0.961106908753727,-0.0708667613882346,-0.570310623422262,-0.749449201685143,-0.827468060534873,-0.354641302541321,-1.01269549420472,-0.0271106241309321,-0.616776497109677,0.79749346849471,0.85388177675442,-0.454307832914061,-0.905962445596883,0.582572422721961,-0.483857610499933,-0.741212681271407,-0.481190419074365,-1.66520188776714,1.34091807191592,0.430021099195306,-1.0734260656431,-0.660669239544002,-0.143330735376774,-0.885468495578203,2.47411926032436,-0.98233797370001,-0.180187365492163,0.75617293445592,-0.0131571249861767,-0.246449148631849,-1.26692865112131,-1.29903045672913,0.630386418879131,-0.612529670699328,0.333783751990781,-0.690958934497454,-1.30733732985989,-0.931845960418782,-0.0674787410478949,0.0262148152585683,-0.340840219256874,-0.575250597693777,0.0260425850449698,-1.36177498990204,-0.466999269015193,-1.09868866703135,-0.478147033948212,-0.897237515644112,-1.01883474043385,-0.619250103692296,0.17770142669587,0.156631847350115,-0.784515001921539,1.62507274030109,-1.77066748481794,-0.969593847563408,-0.286880334827377,0.227801432180143,-0.922007288951903,-0.12501804742308,-0.303217575405534,-0.497197426387096,-0.0805575577987278,-1.00417389545002,-0.622405939543025,0.38828977072355,-0.275121942082604,1.25154934015323,0.528724240372807,-1.83847643727316,-1.09048917115495,0.0510002536293711,0.676778024325959,0.182825800434633,1.23968985196276,-0.643803993615435,0.456836994180695,1.19117063575017,-0.912383519778316,-0.1374636534158,-0.13711692548596,-0.542308908914455,-0.32997167185268,0.934780892025564,-0.764580616583721,-1.17422495505225,-0.509606134400963,-0.858953522574922,-0.206298461914141,-0.568506226085598,-0.604818286485583,-0.723615644826557,0.11023471969149,0.431589005789115
0.119921217973626,-0.968874520530309,0.114578632876695,0.56340820027502,-0.971831091027994,-0.178746235377292,0.155444086067777,0.00237386027253778,-0.364935037206112,-1.37713225467285,-0.319381117955076,-0.946313234680673,-0.218472877243392,-0.106138534047168,-0.494465188060333,0.563954633876064,0.477868032764009,0.927928079962186,-1.03552614434449,-0.368704460069134,-0.0144544501081574,-0.589913498562563,-0.40157697590778,0.188941242214872,-0.972660129185033,-0.177631305085735,-0.277566122644477,-0.399862319094256,-0.41961510767942,0.135010341030523,-0.0940485980762152,-0.0164200027415567,-1.89370075296288,0.167113015655838,-0.926261516583226,-0.142352517028876,-0.542617525966085,-0.265292331074201,-0.00273427280460563,-1.0910719886196,0.371762951235726,-0.745593948837599,0.47781475525093,-0.243770956456263,0.487586258586908,-0.183361479323897,0.449055967149978,-1.18439662739576,1.31306935455824,0.725454965788768,-0.934846740536033,-1.64949402778549,-1.33226410217312,-0.643853364740949,0.0110876018834172,0.642762388543311,1.07169883723428,-0.0920313394283366,-0.964856025603596,-0.875861273366537,-0.439282688235002,0.145708052600211,-0.0301982680363279,-0.679289522182307,-0.170733873484788,0.457138350051499,-0.917553989613528,-2.02602347641295,-0.474568320369399,-1.3614058782413,-0.257146037846642,0.713517941888396,0.400817013829518,-0.452354782223571,-0.899072490241067,-0.936859420823158,-0.41640748689071,-0.985310970356613,-0.0959035628960279,-0.507920987828548,-0.276570454965861,-0.341898054104943,-0.417853278780127,-0.621080529878777,-0.714189365738705,-0.592393620061832,1.91476143787569,-0.664437917584293,-0.583725838788783,-0.152646735538459,-0.540858481096675,-0.755495212844707,-0.822885390372013,-1.35023696489019,-1.26389284748373,-0.568212302855862,-1.06716895403858,-0.233096448637613,-1.05932204364622,0.589613566737731,-0.471984242086218,-0.362478815543851,0.380168469453577,-0.894762166211387,-0.855936595278324,0.22053944885275,0.333418227286743,-1.02997349022693,-0.788992832062543,0.817327545680172,0.0960151175984566,-0.427170911072288,0.744242527004556,0.54728916624569,-0.882073191700821,-1.23630827113043,0.858339536924533,-1.08988537044929,-0.468100626362363,0.386895019339839,-0.485913593159566,-0.485509644851764,0.456707677716203,-0.742995631507331,-0.963468284120186,0.129308793263278,0.0282235068840328,-0.537947416014825,-0.693875897016261,-1.10530991647745,-0.144651117472238,-1.21860185085738,-0.598539485828046,-0.03432590025318,-0.862805861708369,0.866108150156451,-1.58777188506837,-0.782232111954891,0.441070563779807,-0.159797692683651,0.860037210543484,-0.122935246908446,-0.769710587857349,-0.329153457285572,-0.472254504936324,-0.556258083462877,0.572938119413143,-0.0629933717292328,-0.246502555040634,-0.443593924871368,0.337127537510213,0.265902580613077,-1.13996720165267,-0.873454734600079,-0.1914707788283,-0.12885075021029,-0.128134217127482,-0.560551146902913,0.593774424307019,-0.522700637030849,-0.977644167770746,0.0709133776928712,-1.36399691081258,0.61152711083283,0.0763245853489554,-1.90516215155187,0.207796187094224,0.706716626880191,-1.78057683987782,0.241298304389241,-0.26587462867574,0.463676333145521,0.300688750982234,0.629091752368533,-0.39392213669464,0.492455304668245,-0.931902950730432,0.437919215771933,0.515462848453596,0.487926331871238,-0.635543170545526,0.401609423821463,0.501889861914826,-0.91599785666474,-1.01487584668559,0.596568595415177,-0.692400166331985,-0.591902949221319,-0.172652373653432,-1.08695934221978,-0.642262164521006,1.47052929827438,0.246766867852572,0.390893560523344,0.786373141244094,-1.11628402706185,2.83185416952729,-0.173015911121786,0.980472893165241,-0.92076682593041,-1.35595612270947,0.0515599255455959,-0.0547193610263566,0.268552660604113,0.507383916347025,-1.06395702806023,1.71035129323409,0.00962291040315605,-0.578965155462411,-0.998563666621457,0.806380760855683,-0.357864511839154,-0.202036780167054,-0.0227190010387443,0.131144619748556,-0.326687105698003,-0.649069369874665,0.122920382198777,0.926199020662283,-0.750755655785969,-0.495933901527558,-0.0462233588858321,-1.08607739117599,0.310192114137535,-0.290209193295463,0.0701253721172253,-1.40213362530482,-0.602351765475763,-0.418083612829446,-0.33093461273808,0.422148383508885,0.544983475412125,0.184233578283084,-0.785856190044555,0.599611392996239,-0.645026254090151,0.252652611577805,-0.897135060322557,0.653135665068553,-0.254147941666738,-0.334222247179158,0.612490577503236,0.122653612032778,-0.499573599323556,-0.776237035271541,-0.380751968716584,-0.4428023769622,-0.801465948447629,-2.04596006232509,-0.367495140509783,-0.722690335660318,-0.395805695093309,-0.83099541860953,0.143709693752644,-1.21429098694704,-0.298720706941771,-0.26816527957117,-0.0082636642708346,0.8479820283707,0.0724739201121926,0.0965854280947337,0.672970731826166,2.3531718916671,0.217231162394663,-1.04766554240424,-0.749111321152476,-0.543717623346731,-0.268740609877039,-0.343584177115893,0.271008045121647,0.222647342291521,-0.250627371354829,0.835487280260648,-0.573915127389639,-1.37598615150589,-0.669243558628628,-1.21889003526497,0.832015555274392,-0.0577955484732381,-0.533980348663647,1.29142188624865,-0.72832123728616,-0.84422046652599,-0.281143699869136,-1.15663026339901,-0.287185874021163,-0.932110696497386,0.0525559963843708,0.391949318355697,-1.13359172530379,-1.13621076860655,0.134015741174623,-1.15170324103483,0.35334683464326,-0.276626469305981,0.100193662262008,-0.937966303038588,0.8436962517033,-0.163390866810196,-1.0470398250076,-0.82256375831062,-0.187123511953252,-0.741352740791178,-0.380040261856848,0.158578326993069,-0.109682177071814,-0.775289469279332,-0.540505958376085,-0.492957336090483,-0.37207032727795,-0.245383159069348,0.0147446122634338,0.000429612368458678,-0.784635963162775,-0.210774071078716,-0.789802720520583,-0.413300029308368,-0.88820080611755,-0.603728729995437,2.20298085655985,-0.0207507231842804,-1.20781895776641,-0.772874425268764,-1.25050458000725,-1.10908611449091,-0.934027933887531,0.511430528381182,-0.315639614327727,-1.12173235526277,-0.125130980582538,0.287916681019926,-0.580601941442492,-0.711389430235052,-1.12056788904635,-0.414171793061265,-0.517077743163318,-0.171457120116972,-0.756472571171947,-0.180332399789567,0.669576803592692,-0.205461724598192,0.0442072535040751,0.798821937731568,0.349145998135974,0.260891847980191,-1.25447244360448,-0.359646523968607,-0.59854863642052,-0.927055580241344,-0.394570441645907
0.174324023130802,-0.633930564423843,0.529308605957738,-0.612261712794433,0.382117822894459,-0.310999924129244,0.559852809131263,-0.880432908953646,-0.694946148282686,0.960017384195344,-0.256383335735844,0.412690507433073,-0.487823252117974,-0.482265620434095,-0.624746064928119,-0.888258456655362,-0.0811388316303554,0.0215208805659322,0.187189263576882,-0.446085699403211,-0.793581312304244,0.142115222127377,-0.183225500595182,-0.511695236211425,-0.572504344221601,-0.541731921703465,0.0353363500907168,-0.550872237408773,0.519416786201187,-0.336658304736479,-0.433019323205963,-1.0299819284048,0.390972002612572,-1.09963653126771,0.496498276831433,-0.2738112988391,-0.964550863626426,-0.549538438546513,0.631685082243561,-0.604556544328966,-0.776571936235093,-0.0418235362144814,-0.281721629134402,-1.59358242236911,0.0696237935817883,-0.550089412012894,-0.48418613702232,-0.662516740579991,-1.02017501041584,-0.562209982196088,0.899593671771318,-0.991013858942182,0.141170659505153,0.0716094095643069,-0.0649494869074264,-0.725288259700941,-0.954934990496152,-0.592058348279071,-0.291461650503231,0.190162558833069,0.174548924450449,0.0257519881300621,-0.191397067837571,-0.259446298516844,-0.80980899332524,-0.694088173587544,0.874680827198145,1.61824886375849,2.34426158522549,1.63890113341193,0.147376720527056,1.81551474166637,-0.591885537343753,0.368618060085627,-0.713244120466766,-1.44501332350083,-0.015279364658863,-1.02772269158809,-1.1690897950051,-1.15427437597661,0.43150341773009,0.46262792762876,0.0868633470293086,-0.231344222355286,2.8324066978162,-0.9200730671759,-0.970128382495041,-0.330404156319288,-0.907583226018484,0.299432689212673,0.166343084283845,-0.298721566855685,0.455312027410434,-0.409428039121916,0.212985997674377,-0.197685942729951,-0.215216748130133,-1.21953932748475,-0.112177259437923,0.774639589228999,-0.295152720725291,0.270788549295583,-0.997919560408929,0.125654945480668,-0.0543236103175415,-0.560501832144205,-0.485928403763706,-0.790862202547568,0.774994343541361,0.807520824809238,-0.611661966721564,-0.335190278045298,-0.805971971317343,-0.602283755943381,0.583836496025967,0.899765134714432,-1.57236976114101,0.0662525470463785,0.115782518187901,-0.492049745817486,-0.0486426888421359,-1.75957612112354,-0.2423873673478,-0.0889788126391218,-0.884850881084725,0.610650786562842,-0.633004971614829,0.314250263318911,0.624450105815161,-0.322210514526786,0.562115254516668,-0.183918410477125,-0.916929105725884,-0.494256982553161,0.147126932105886,-1.12969637188154,-0.903611152581968,-0.159950255460343,0.403947802909701,-0.280377622255526,-0.802458843840072,0.990662972884209,0.0507553017035682,0.488673361977374,1.53728416935507,-0.86706707723119,0.250641134136094,-0.426033745690157,0.186111861361287,0.31591125711691,-0.341284559435239,0.389871947841596,-1.68051988168826,0.121120552369884,-0.917106712758824,-0.366177080934969,-0.193457472622443,0.894115470919447,-0.48802120029702,-1.22665055947677,-0.567146415453281,-0.00815889991472929,-0.271533152565578,0.371005928135464,-0.463799684074948,-0.57185062128754,-1.06345453626387,0.335915896570384,-0.313733164597951,-0.5414903709626,-0.430729746908857,-1.08587515207894,0.232534916352786,-0.351608638098301,-0.753461406944395,-0.999159671245084,0.706366098842574,-0.430544629430738,-0.640413296951053,0.866167458064244,-1.12466458986206,-0.162375637027123,0.13299800074319,-0.700111676174884,-2.18956737974515,0.510021775719727,-0.962165771245707,0.192738758930407,0.57536767109752,-1.43147900367629,0.150303290794146,-0.412032936163949,-0.269013678013553,-0.94368673482738,1.87351941391828,0.870295489183113,0.197279503133383,-0.789015018234285,-0.19212966834323,0.465980593148107,0.810657506015488,-0.176470835165369,-0.970925325574579,-0.226393711303543,-0.938617892484494,0.95328298466926,-0.891940498054755,-0.0444207708882046,1.17441951419154,-1.05490435594003,-1.27320217315222,-0.00752425729411699,-0.152009705465435,-0.85672221514671,-0.98916793757953,-1.15505622796591,0.48651193229646,-0.893794897568206,-0.821918702840227,0.271517991045615,-0.84977940518928,-1.04493290844471,-0.245102690710244,-0.211256334797671,2.44900432158117,-0.698060116594082,-0.125494119271202,0.125125350327031,-0.238099848872306,0.429427857698524,-0.998710695734395,-0.451122848255665,-0.737167709547818,-0.309721661498415,-0.162975904129883,-1.13427086650643,-1.16116150574788,-0.600371724543551,-0.607375059231221,0.581419905648203,0.279959873968193,-0.359241828248334,-0.0531481008445448,-0.682156079041655,-0.310439791812046,2.89669586739456,-0.131582356063663,1.70998684159604,-0.716412333394608,-0.843048354266182,1.48763936622029,-0.0511910983616152,-0.543523722936756,-1.35570870755808,-0.14651527823709,0.116437862395788,-0.724092274862965,0.703500888802037,-0.810495812924869,-0.350637816513892,-0.843116411890603,-0.571672332000678,-0.483826894343915,-1.65702424452885,-0.201533520437278,0.440570501630476,0.0669230216274053,-0.0784898825911383,0.152384886370263,0.806938311809705,-0.0217942799843304,0.432694025900395,-0.585506840585341,-0.526042283368573,0.744784105226313,-1.48045045002949,1.12003976785754,-0.784444916023941,-0.580752627924523,0.195451451178766,-0.712087354127181,0.374242236699742,0.754076323557798,-0.0653330253805841,-1.13631487669804,0.834955352455307,0.928374899325356,-0.95067641966249,-0.422512986332473,0.492106249717558,0.552968839179367,-0.747543705584942,-0.125461570734628,2.29817007589108,-0.577175856934086,-1.24377651671336,-0.479447674199341,0.288936436615192,1.72729221354845,0.237772893182469,-0.444057179466406,0.633129152353291,-0.620606363903767,-0.627608683497785,-0.562131504249231,-0.671557054600449,0.683207584769004,-0.04243943960687,0.22584145178097,-0.456919370504817,0.0298830539099472,-0.773961060346061,0.412570276351396,-1.063003265524,-0.866210156835824,-1.37400603724617,-0.334104460968722,0.0798377752624882,0.374298398916178,0.429232252673929,-0.353978876202959,0.391313603354823,-0.270059203550135,-1.13634231989221,1.03937351734857,1.15054424985372,0.489332162223155,0.564605178581542,-0.71741402011525,-0.623810772787697,-1.05484985528929,-0.587538880371502,-0.668345865883852,0.105235392847864,-1.64157514833653,-0.515505503426618,-1.0189100307852,-0.522313167884675,0.527760113044634,-1.0309084660344,0.894758902850074,-0.600569118002925,-0.853026754937041,-0.203837110307998,-0.329607052185777,-0.923420451429017,0.594068206250179,-0.229683126529931,-0.446045499514303,-0.297839520708398
0.299897975835291,0.944862962131423,-1.10095813505079,-1.18115502639969,-1.08683910453064,-0.0182434212920657,-0.876283930388928,-0.242081048098982,1.20053593111433,-1.55637088088097,-0.686812474725569,-0.214415051637551,-0.531940042812925,-1.8272011549803,-0.544402039898138,0.495738213405661,-0.733123000192628,0.110287548198911,0.282676793216425,-1.20594691779431,-0.48211828384934,-0.505585220534528,0.362215961457618,-0.804195948621314,0.236492065704789,-0.845747369828635,-0.679070888830286,-1.30898931079989,-0.215408298341595,-0.467076062801235,-2.67105597460448,-1.03282053474904,-1.91857569197218,-0.143831425842621,-0.402695588972434,0.119456337750786,-0.0894591742878829,-0.864017019748961,-0.833209595434556,0.10429041409472,-0.58723261994753,-0.683135580325093,-0.0190303431627064,-0.442226964476092,-1.16411903710298,-0.637660503942746,-0.953383874409815,-1.53134986304166,-0.729892043399647,0.362540694087862,-1.78676483311876,-1.84910722401199,-0.700685023474058,-0.344213497449022,-0.823033653706707,-0.534850032181805,0.454066965930625,0.327849339211859,0.423563151009554,0.214320932122122,-0.0729133388973738,-0.563745357161713,-0.0557543866964185,-0.961011461017321,0.192451727362526,0.701264430724119,-0.884582386287208,0.884013271507823,-2.65733501733827,-1.27121151462829,0.914447117926771,-1.55100587283103,-1.4519587751917,1.2154072723949,0.306308698728479,-1.98519481297864,-0.388008645906394,-0.170519609954322,-0.551220632870921,-1.09283140007193,-1.01553317171204,0.573297261252112,-0.212264328528535,-0.611307238838982,-1.1475514634391,-0.702696390040815,-1.52713904160853,-0.625361347674416,-1.17985564313923,0.532491477479371,0.0563915183414917,-0.303919898100619,-0.787819173817034,1.01128603972556,-0.432200860607778,-1.21958729373361,-0.515550546377851,-0.379260612924491,1.54209725672064,0.362802629114137,-0.870354527661561,-0.0461014800776122,-1.06411476710732,-0.94281515581954,-1.10458182099905,-0.268562228024185,0.0666055790910744,0.873548485237711,-0.954671548122235,0.494505690408814,0.555814956322856,-1.163911842798,-0.547799231400874,0.642316091438266,-0.66951116795702,-0.269240961949396,1.67440146235046,-0.076378111140263,0.0440981320611266,-1.07313217962243,-1.50309674953862,-0.511126561462702,0.259435648938371,-1.53351766287443,-0.162049463269561,-0.946577412283524,0.608632279894662,1.11271462664832,-1.01730209066715,0.125316506391958,-0.314234356475197,-0.808883763147881,-1.04977703974839,-0.912183747767639,-1.29369645659372,-0.50018852599,1.08438879242829,0.0649914290351356,0.0486926071121112,0.799618427288584,-0.312570818415324,0.281999172902713,0.599308052535407,-0.916164937301089,0.382527925450683,0.30845795718652,-0.600788380882549,-1.15894074760576,0.211353606927652,-0.461206264265962,-0.271135504320443,-0.197817535996975,-1.49860325136413,-0.0856312242111825,-0.407505296408246,-0.780903585867175,-0.738489798681785,-0.995623385171499,-0.0909986263433285,-0.162235308204413,-1.24126215525334,0.52956226919473,-0.87927625534118,0.255600200865826,0.236078382486081,0.10991923399877,0.115477789497913,-0.144555591469633,-3.48804062823924,0.262765796047169,-0.356565247296139,-0.955475106573896,-0.896647570907327,-0.945894896360475,-0.596458127591754,-1.0066312250052,-0.841880542478897,0.550313326437484,-0.54045654854859,-0.668158366786641,-1.13209564760547,-0.0556487565613819,0.328035162888733,-0.330657544164879,-2.74957803592075,0.239844182070631,0.463481360630007,-1.24780354097452,0.480410159573531,0.165602509418857,-0.810305139628405,-1.06648828450763,-0.114319325496931,-0.626167685414619,-1.22615784620348,-0.0221946301611201,-1.51024472407209,-0.164497510338912,-0.319160987684276,-0.704635722109878,-3.66953060693992,-0.214823278644049,-1.11817985684137,-0.780224592934731,0.595889908360802,0.479115160079643,-0.716458967304148,-1.11110709471776,0.0126917479502001,0.165760526220866,-0.465973610974598,-0.780212078200846,-0.506026212408087,0.924748802983044,-0.615936649262831,-1.3694390863199,-0.568366631099424,-1.66322557799677,-1.35732399062637,-0.867884475584392,-0.104616218797062,-0.710953455047239,-0.23073567750475,1.22177131188363,-1.76178963288191,-0.931262279805723,-1.69229727319808,-0.47744289367171,-1.33460191009301,-1.09521754699258,1.02787505713172,0.673037214105307,-0.473910282826281,-0.395073715396014,-2.37223690550711,-0.903383438309103,0.237428865484465,1.24078796119788,0.266812556058703,0.33971729515901,-0.406010319150028,-0.750006009452596,-0.469743461719426,-0.598921457022447,-0.763502042178386,0.090162515305323,-0.652512321297989,-2.03716075151404,-1.10990089638817,-0.894821423491368,0.539107662187291,-1.10314689525183,-1.02076819449864,0.301928387643342,-2.08907005577116,0.670106536470884,-0.712844026492795,-0.971813688382009,-0.103005198976688,0.559262990408172,-0.635747200366135,0.377528163014272,-2.19253636282118,-1.99483697251317,0.480924897907863,-0.702946885730169,-0.799742141357721,0.184233538742794,-0.346374230506081,0.276017755018701,-0.573441906674648,0.868988766771654,-0.879667629193823,-1.97484453173133,-0.863159372586725,0.0953088884166434,-0.915950811028076,-0.18181442838989,-0.990910495881172,-0.290668167728262,-1.60486390086899,-0.0932733259359745,-0.137112104609511,0.96685670209635,0.0357369634203102,-0.39407675897439,-0.917031528861952,-0.928986053499033,-0.78296248658114,-0.72431075722106,-0.504090588202673,-0.458756517645631,-0.573556288720912,-0.502255752823276,-0.082919472071513,-0.263199487399513,-0.0979939850515886,0.376882193172478,-1.65633729948967,-1.12496504781832,-0.193876642924911,0.258870004572687,-0.943599828781916,-0.588077092247593,0.619850560215873,-0.722049847707119,-1.09435275611121,-1.33977461279469,-0.589032638881883,0.0111766044887638,-0.469441274776869,-0.373472391934217,-0.0863066253784488,-0.221719588115713,0.430219151036141,-0.919102247178995,0.775663896748639,-0.156081868001615,-0.887090195446095,-1.25319933986882,-0.241548592739808,-0.820149784481213,-1.33538661449504,0.922335974797299,-0.464508381380046,-1.47487009929765,0.0185532497878006,0.048972855251676,-1.00569352173106,-0.3104509178899,-0.925648265233721,0.453674076778665,-0.296022968844118,-0.623923891178861,-1.3120963499537,-0.972869793450307,0.0719360921583508,0.319138843186373,-0.531599849709441,-0.671443180273644,-1.09113938059804,-0.265053086227202,-0.863006908368375,-0.898428361033602,-0.019162332752434,-0.478834683606997,-1.95567687322811,0.299997242555102,-0.0431359541691928,-0.876768954462839
-0.684601013313666,-1.10553567549883,-0.637730367574274,-0.504479257717548,-0.83343193882967,1.06043046399499,-0.991005406451413,0.569702711710739,0.159235218517772,1.07438552590669,-0.757889118018455,-0.0442446363492571,0.430286403963624,-0.404573560754603,-0.301939996678073,-0.311071771505945,-0.934577819285371,-1.26353752548986,-0.622557395184521,0.350697618821071,-0.292882615608468,-0.246668781589465,-0.176139203592804,-0.406033980792908,-0.66767558700378,1.88296027212337,0.550924814997647,-0.02284340717958,-0.627489230854592,-0.284617020825959,-1.146059308264,-1.2631679287444,-1.2238095530697,-0.892857205991873,0.460420723994448,-0.42017248390266,-0.301805108301487,-1.13390541849294,0.245814937100827,-0.450111209813733,-0.110626923661997,-1.49575046794766,-0.0758497322404209,0.200589519615495,-0.195854687228777,0.145882698836247,-0.932250348214285,-0.538467830705395,0.134698115464768,-0.848116144564869,0.0591656140820855,-0.764806630076053,-0.480002567261606,-0.607042427835371,0.0990211816601861,-1.08446318528279,-0.568095496412608,-0.0908078509373168,-1.38307340156541,-1.15176633868293,-0.425552948692515,-0.584671770057737,-1.06319470051408,-0.460681038335524,-0.175013151024204,0.252693386051626,0.00275175146715375,1.20009041253764,-2.83048241376556,-0.206474736528412,-0.0585945589776197,-2.05406828569597,-0.574760366584788,-2.77157125169169,-0.747066576762367,-1.03343373782681,0.374257013610023,-0.888069860694868,0.0145654436989587,-0.560090110576492,0.305194859710137,-1.11281760318987,-0.54425104157501,-0.38215238119751,-2.40863028725846,-0.95757867529162,0.0757600324179032,-1.40930060573427,-1.4523311204305,-0.952429148649811,-0.476927238678599,-0.0118985562183707,0.233785496368357,-0.895751595914182,-0.298224352630176,1.09805205100852,0.389560842590654,0.15131799177341,-1.4516058676352,-0.351480673713487,-0.439125545082976,0.0525574682648296,0.238748812225996,-0.903278298825186,0.326094883206648,-0.212692310762158,-0.964640576262802,-0.972874280559463,-0.503019278025318,-0.137906151923721,-0.536040628124981,-0.143687572510534,0.331622248105173,-0.992355528628298,-1.14472562042559,-1.84525932376331,1.26947333679963,-0.257948933766414,-0.636907087896824,-0.714025027405135,1.22733194714733,-0.833480167558037,-1.14937072186882,-0.237935159929448,-0.538470978503936,-0.985362648248157,-0.331743227267663,0.264340147794246,-0.0997266058684546,-1.02655913552077,-0.841776789947146,0.711103653823847,-3.08774481287971,-1.10210036706819,-0.357517665945035,0.717971613091635,-1.89216324413848,0.508512507406133,-0.458069905627991,-0.111467641502668,-0.813742083538087,-0.869504077419353,-0.843536433663213,0.161380480846876,-1.26539612554773,-0.685596464676609,-0.936471383964604,-1.06708904682464,-0.859753042906193,-0.236131522614255,-2.12912395922427,-0.269089362301411,1.54271209708052,0.0111669067382162,-1.15946343053752,-0.262442125658216,0.00329610464683665,0.564680234401001,0.302263698792933,-0.10426280429247,0.320509373978693,-0.755245482339839,-1.06641906742293,0.372331499164019,-0.796309222722329,1.1040970393324,-1.3170135932622,-0.654788433901821,-1.73205716372513,-0.571521381788087,-1.2938252181448,0.646942260959139,-1.14108579236994,-1.23698657306775,-0.558534725884205,-0.660473376607908,-0.955830590159008,-0.805240349309563,-0.88772632742323,-0.937855123131818,-1.17279620940694,-0.695221917546375,-0.261977661928927,-0.682678613386115,1.00137700630794,0.0882424212187806,0.3547492076583,0.0357045781911293,-1.05858556610875,-0.940255638118636,-0.567585989287206,-0.016243885518968,0.154516117108555,-0.815508513176739,-0.409902522858526,-1.18415867058542,-0.989910974703061,-1.03420870382202,-0.846099228400227,-0.348233718632668,2.0246512429555,-0.93559631150644,0.343909700541339,-0.633648066759426,-0.877743709955963,-0.858355171033426,0.528706358091134,1.06785184656889,-0.496537712319418,0.213604454247921,-1.99685178231745,-0.927085073961638,0.93598796274224,1.51208749848849,-1.04524973330917,0.736369303789395,-0.2874576783978,1.28978891704396,-0.536616247394944,-0.498735398325908,0.734996759387191,-0.559368706788682,-0.205319543033115,-0.840713005100151,-2.90293962174877,0.848671997731458,-1.70860530526217,-0.186726584745362,0.0630823181765393,-0.0376998146718618,-0.338892359168574,-0.264153583535373,-0.353020419495631,-0.187600836063743,0.935183168716051,-0.483107408454182,-0.813483727050071,-0.956127698439915,0.214368544341611,-1.03261682291884,-0.353760556122978,-0.856394178329055,-0.0176445543387432,0.0109697907936606,-0.227805493610804,-2.54665078309965,0.184632332093285,0.206801857129703,-0.187430137617205,-0.314818611889508,-0.543726364401741,-0.225208755121538,-0.0798346089178118,-0.226539271397152,-0.798605783797868,-0.352954014509452,0.547745184521638,-0.883921311272955,-0.848899028128351,0.17111516463913,-0.833651990425722,-0.711146050445875,-1.49220282834504,0.668328723274573,0.0516540610738602,-0.97892956732334,0.922493683719663,-0.500549968692715,-0.83669450682058,-0.725492481485528,-1.71330236015609,-0.42813800714131,-0.61475632110378,-0.0179319138136827,-0.325351269767406,0.655672186518477,-1.94764649588878,0.897087679313158,-0.834409981586567,0.354756443076094,-1.0482555277269,-0.169772853591312,-0.149841165213519,-1.48103597358764,-0.645732645469148,0.267384356201979,0.885667615926131,-0.770884752543085,-1.16500379316158,-0.506913173877277,0.959616340406328,-0.783915836052452,0.389956953605545,-2.34314871774009,-0.122959566569751,0.104106520654962,0.682994231704267,-0.61683263404106,0.429369845560066,0.541029042190049,-0.886098191816191,-1.2621353760324,-0.130502265461798,-0.0459616879746869,-0.0622222544669556,-0.570390383671429,0.0910957246448462,-1.55551098912069,-1.23452449277665,-1.06007729086074,-0.842184768144731,-0.563501236588818,-0.00742136094783264,0.264426910842422,-1.22487413978355,-0.122506949812035,-0.276475271137154,-1.29281264446483,-0.317868038793182,-0.504655184664913,-0.781120422899129,0.482125987830239,0.847103379188846,0.932998844969878,-0.627332328739481,-0.0534967941540168,1.02452681291101,-0.0080202103975452,-1.39600812330926,-0.520720980486347,-0.74486649882786,-0.926104694820578,-0.294877887779224,-0.708591522369753,-3.49942068746228,-0.979705464131412,-0.0853678678279116,-0.451133050958779,-0.641059287603631,-0.102003449494531,-0.682004589329968,0.174131315738426,0.153974509448888,-0.16246247153446,-0.274645110135362,0.203819488292034,-1.46839227288467,-0.317217662266473,-0.384712727965743,-0.477448546741052